864046 100
</s> 0.003402 0.000061 0.004989 0.002862 -0.004852 0.003564 -0.002982 0.001368 -0.000864 0.002425 0.002308 -0.003391 -0.003311 -0.001280 0.004072 -0.001934 -0.003222 -0.001248 0.002078 0.001254 0.003682 -0.004943 0.004829 -0.003122 0.000035 -0.001256 -0.001271 -0.000826 0.002280 0.003782 0.003570 -0.001595 0.004649 -0.001776 0.000080 -0.001690 0.000321 -0.004225 0.002834 -0.000936 -0.003183 -0.004820 -0.001339 -0.003408 -0.000767 0.000659 0.003957 -0.002275 -0.001659 0.003209 0.004821 -0.001431 0.004627 0.004331 0.000657 0.001262 -0.002105 0.004403 0.001566 -0.001564 0.003148 -0.001279 -0.003208 0.003946 -0.004170 -0.002706 0.004855 0.001232 0.004430 0.002091 0.001453 0.001688 0.003108 -0.004084 -0.000230 0.002557 0.001731 0.003415 -0.000433 0.004604 -0.000573 0.002032 -0.001380 0.002256 0.003463 -0.004208 -0.004859 -0.003857 0.004711 0.000258 0.000775 -0.001308 0.001837 0.003365 0.004231 -0.002674 0.004809 0.001452 0.004120 -0.000410 
的 0.135455 -0.082259 0.127831 -0.086678 0.103215 -0.083234 0.120828 -0.107942 -0.074977 -0.144052 -0.112931 0.070344 -0.151896 -0.281683 -0.017081 -0.100949 -0.102174 -0.153118 -0.363521 -0.145551 -0.128036 0.105113 -0.005182 0.134624 -0.123588 0.098731 0.131710 -0.057457 0.085110 0.131795 0.030766 0.041374 -0.023405 -0.105172 0.086776 0.041166 0.062419 -0.223423 -0.195353 -0.114097 0.017471 0.015362 -0.022879 -0.102356 -0.010388 -0.020699 0.074056 -0.051124 0.046122 0.033457 -0.060688 -0.098905 0.148301 0.109988 0.011457 -0.071682 -0.080228 -0.026571 0.117499 0.243178 -0.067085 0.205484 0.113723 -0.054733 0.107377 -0.212911 0.016712 0.232474 0.085386 0.113574 0.019919 0.011661 -0.077842 -0.056861 -0.097190 -0.042927 0.070699 -0.169257 0.158685 -0.182383 -0.096912 -0.023613 -0.148163 -0.144936 0.224338 -0.157516 -0.053715 -0.022801 0.142636 -0.062205 -0.110283 0.090536 0.270515 -0.294234 -0.253914 0.004918 -0.008265 0.082389 0.021577 -0.090299 
. -0.331391 0.074947 -0.172603 -0.095473 0.018715 -0.107319 0.044553 0.048889 0.006457 0.093665 -0.158265 -0.066718 0.278219 0.061247 -0.023897 -0.021294 0.153826 -0.137612 0.200025 -0.245748 -0.039975 0.029296 0.074684 0.110901 0.089121 0.126732 -0.179803 0.082344 -0.062061 0.091058 -0.061413 -0.147634 0.109470 -0.138323 0.030471 0.120101 0.001200 -0.242174 -0.024082 -0.248013 0.059187 0.010724 -0.037599 0.001615 0.233961 0.006744 0.002503 -0.175073 -0.028919 -0.078856 0.287593 -0.149576 -0.063973 0.163066 0.085216 -0.048830 -0.248999 0.263513 0.181204 -0.234274 0.056038 0.050567 -0.061751 0.007613 -0.103200 0.126852 0.220477 -0.302708 -0.059076 0.266444 -0.133104 0.119742 -0.239510 -0.173374 0.088542 -0.023583 -0.019464 -0.193299 -0.013383 -0.053983 -0.250821 0.017900 0.049963 -0.137396 0.091236 -0.236496 0.533144 0.059311 0.298763 -0.072766 -0.090724 -0.131043 0.101682 -0.128137 0.052959 0.002744 -0.484607 0.063225 -0.003888 -0.231991 
/ 0.131448 0.143559 0.081742 0.142782 0.105141 -0.441340 -0.144936 0.201656 0.088056 -0.040528 -0.288179 0.042969 0.195686 0.287966 0.068614 -0.181215 0.056708 0.093659 0.541185 -0.162787 -0.137942 0.146869 0.073887 0.260700 0.331388 -0.050698 -0.131316 -0.158916 0.179609 0.055345 -0.310543 0.004899 0.038978 -0.390602 0.360448 0.220516 0.162565 -0.308171 0.138214 -0.229736 0.265298 0.010020 0.076491 -0.093117 0.118430 0.027029 -0.120170 -0.015866 -0.018052 -0.191033 0.485981 -0.181771 -0.031677 0.153329 0.010213 -0.015427 -0.030783 0.269137 0.206830 -0.340964 -0.115463 0.106766 0.178541 0.120808 -0.172104 0.094909 0.276233 -0.488505 -0.083378 0.275258 -0.213583 0.228624 -0.396982 -0.202364 0.146435 0.018688 -0.025610 -0.418481 0.059831 0.031802 -0.358657 -0.088753 0.216136 0.196005 0.164984 -0.330767 0.681400 -0.052846 0.284465 0.041187 0.033242 0.039057 -0.185813 -0.196247 -0.044430 -0.144651 -0.765383 0.197568 0.082011 -0.266570 
怎么 -0.139180 0.069273 -0.139160 0.037989 -0.167262 -0.117683 0.208582 -0.112069 -0.196460 -0.070109 -0.184025 0.097528 0.012441 -0.446186 0.106118 -0.018630 -0.080651 -0.172529 -0.492282 -0.173797 -0.313843 0.130784 0.253864 0.181620 -0.169511 -0.105433 -0.016460 -0.127362 0.054689 0.051814 0.122968 0.038271 -0.140425 -0.186033 -0.112297 0.082925 0.062614 -0.219442 0.078123 -0.354272 -0.314474 -0.033233 0.080597 0.217332 -0.048159 -0.373076 0.074916 0.095932 0.036050 -0.187473 0.070392 -0.037010 -0.139611 0.170598 -0.085447 -0.112285 -0.214064 0.088816 0.045221 0.217480 -0.168097 0.006492 0.150038 0.179356 0.478359 -0.153456 -0.119163 -0.124208 0.258014 -0.050439 0.056139 0.044577 0.004003 -0.133333 0.201015 -0.088108 0.014327 -0.032699 0.178193 0.013401 -0.238799 -0.106177 -0.054418 0.322505 0.117382 0.102310 -0.078321 -0.045155 0.353298 -0.027301 0.100439 -0.151921 -0.089718 -0.089994 0.127203 -0.055543 0.106703 -0.004654 0.042554 0.099207 
下载 -0.168921 0.107063 -0.091159 -0.112585 0.245012 -0.164643 0.207083 0.216772 0.110432 -0.178336 0.137320 0.322712 0.247070 -0.054753 -0.100450 -0.201474 -0.129062 -0.112903 -0.487166 -0.205221 0.281314 -0.100924 -0.102234 0.212432 0.073165 0.174237 -0.155941 0.183836 -0.128957 0.069585 0.252820 -0.021889 -0.009522 0.008810 -0.056848 0.187599 -0.035853 0.005718 -0.117214 -0.124558 -0.132566 -0.100549 0.198128 -0.001233 -0.048945 -0.161227 0.253253 0.084121 0.160287 0.052650 0.073912 -0.056653 -0.068230 0.209219 0.155131 -0.048702 -0.124055 -0.099886 0.185598 0.137884 -0.177483 -0.173090 -0.062642 -0.114170 0.294208 0.231261 -0.074073 0.113819 0.080903 -0.060500 -0.155268 0.131003 0.056446 -0.174726 0.079988 -0.313803 -0.074142 -0.007872 0.189857 -0.244672 -0.195956 -0.183246 -0.052273 -0.167863 0.042304 -0.142005 0.164164 -0.139572 0.053723 -0.002170 -0.068743 -0.148072 0.017493 0.047776 0.271542 -0.037666 -0.122945 -0.060149 -0.007532 -0.113732 
什么 0.168941 -0.133113 -0.016149 0.191034 0.032798 -0.006628 0.126880 -0.048738 -0.073040 -0.163091 -0.117407 0.024737 -0.179850 -0.264550 -0.217371 0.062437 -0.093827 -0.179883 -0.373885 -0.226854 -0.124288 0.051845 0.449415 0.061679 -0.105462 0.043558 -0.037711 0.035329 0.138271 0.116223 0.047456 0.201864 -0.204559 -0.071823 0.105436 0.110503 -0.003009 -0.124153 -0.148976 -0.181143 -0.167177 0.086506 -0.132976 0.051155 -0.014936 -0.061201 0.140533 -0.021528 0.012473 -0.096398 0.106058 -0.028481 -0.026136 0.066970 -0.158244 0.099924 -0.215549 -0.065101 -0.021695 0.219462 0.112386 0.049385 0.070438 0.127192 0.098382 -0.128372 -0.076189 0.185735 0.045066 0.007249 0.025696 0.056630 0.231357 -0.036818 -0.027307 -0.100131 0.083321 0.025074 0.017701 -0.194999 -0.011330 0.065115 -0.235432 0.061811 -0.002901 -0.014003 -0.024312 0.304878 0.054324 -0.127930 -0.103833 -0.005870 -0.057991 -0.222021 -0.228062 -0.019495 -0.023302 0.134873 0.033323 -0.001448 
- 0.053828 0.205627 -0.064199 -0.267179 -0.059113 0.014937 0.206401 0.068479 -0.016862 0.224425 -0.068091 0.042840 0.044392 -0.333398 -0.150318 -0.189599 -0.124210 0.152137 -0.094741 -0.003110 0.301384 -0.055016 -0.323016 -0.172995 0.374263 -0.050138 -0.076184 -0.093608 -0.069197 0.042473 0.083251 -0.031731 0.025566 0.322631 -0.098065 -0.172613 -0.008603 0.293441 -0.093123 -0.334461 0.096762 0.012332 0.049872 -0.202880 0.137233 0.185803 0.081402 -0.042125 -0.019461 0.029826 0.211952 -0.209601 -0.031804 0.083909 0.123852 0.163614 0.138895 0.119192 0.262071 0.079011 -0.352037 0.071439 0.016363 -0.076495 -0.013069 0.229169 -0.160872 -0.066500 0.074831 -0.060782 -0.095701 -0.115137 0.158686 0.007445 0.149417 -0.198180 -0.036717 -0.075952 0.113669 -0.192347 -0.184444 0.033688 0.132702 -0.216299 0.087813 -0.130143 0.021943 -0.142369 0.086368 -0.064980 0.077926 0.124978 0.037389 -0.285574 -0.138769 -0.330756 -0.228706 0.143865 -0.244837 -0.072071 
是 0.186768 0.024472 0.149510 0.136686 0.094331 -0.047938 0.053727 -0.016792 -0.159197 -0.187872 -0.060911 0.173099 -0.254937 -0.307095 -0.164327 0.009466 -0.119930 -0.080307 -0.330860 -0.192959 -0.101688 0.059712 0.327226 0.040471 -0.051725 0.079116 0.047149 0.022004 0.098598 0.062590 0.247413 0.025728 -0.072332 -0.093185 0.155287 0.094312 0.007533 -0.154738 -0.217604 0.026169 0.008225 0.045110 -0.110576 -0.031896 0.049826 0.057960 -0.012831 -0.093800 0.226502 -0.046005 0.121220 -0.098149 0.072401 -0.010693 -0.113708 0.026059 -0.163318 -0.013116 0.039321 0.208575 0.003265 0.173865 -0.018624 0.011368 -0.052060 -0.240184 0.000219 0.286743 0.011902 0.023164 0.094965 0.051645 0.213034 -0.113477 -0.018012 -0.028524 0.076047 0.063632 0.076769 -0.013776 -0.151161 0.181034 -0.237911 -0.195803 0.105489 -0.150213 0.005464 0.211241 0.035232 -0.084424 -0.051636 -0.015353 0.043078 -0.173966 -0.202368 -0.145133 -0.076003 0.064849 -0.004390 -0.138407 
